{
  "layers" : [ 784, 10, 10 ],
  "epoches" : [ {
    "layers" : [ {
      "neurons" : [ {
        "activation" : 0.9509701728820801,
        "biases" : -0.20167981088161469,
        "weights" : [ 0.06443557143211365, 0.02027314342558384, -0.05950472131371498, 0.0054858834482729435, -0.042609889060258865, -0.019807465374469757, 0.019497236236929893, -0.014523395337164402, 0.09618082642555237, 0.021604076027870178, 0.010852528735995293, -0.13731327652931213, 0.08403291553258896, -0.012481729499995708, 0.06000556796789169, -0.07568112015724182, 0.08483271300792694, 0.03747093677520752, -0.00333907688036561, -0.059733979403972626, -0.10957293957471848, 0.032855939120054245, -0.02548093907535076, 0.014966127462685108, -0.07113149017095566, 0.05439823120832443, 0.05581161752343178, -0.010157226584851742, 0.023640938103199005, -0.08068612217903137, -0.006638332270085812, 0.011815262027084827, 0.035273365676403046, -9.85762570053339E-4, -0.08206628262996674, 0.05616993084549904, -0.016684625297784805, 0.03403614088892937, 0.058028899133205414, -0.0415162518620491, -0.05790076032280922, 0.014616657048463821, -1.1122591240564361E-4, 0.04547805339097977, 0.0014801995130255818, 0.03740586340427399, 0.07013058662414551, 0.026975778862833977, -0.06628824770450592, -0.07580834627151489, 0.11020732671022415, -0.048428818583488464, -0.053219638764858246, -0.10546641796827316, 0.016567636281251907, 0.021373748779296875, 0.0010977130150422454, 0.09710142016410828, -0.030605632811784744, 0.07152754068374634, 0.002930151764303446, -0.017226925119757652, 0.02355172671377659, -0.03230838477611542, 0.031122390180826187, -0.04572179913520813, 0.062058158218860626, -0.0419783815741539, -0.06451917439699173, 0.0047524673864245415, -0.020245332270860672, -0.034876275807619095, -0.02185845747590065, -0.03313558176159859, 0.06394761055707932, 0.05432784929871559, 0.08736131340265274, 0.021568959578871727, -0.03113599866628647, -0.02235005795955658, -0.013001371175050735, -0.03401941433548927, 0.04297364130616188, 0.02333257533609867, -0.031435005366802216, -0.012133538722991943, -0.06098050996661186, 0.04200465977191925, -0.0047957152128219604, 0.025709927082061768, -0.0657394677400589, 0.017164764925837517, 0.03872860223054886, 0.03946276009082794, 0.05588025972247124, 0.027548858895897865, -0.017490431666374207, -0.015444249846041203, 0.08711118996143341, -0.04226573556661606, -0.09466008841991425, 0.031077729538083076, 0.07391615211963654, 0.005113597493618727, 0.06553029268980026, 0.07331525534391403, 0.07835907489061356, -0.03293696790933609, -0.03125448152422905, -0.03026462346315384, -0.03776010870933533, 0.050947584211826324, 0.09076611697673798, 0.003477648599073291, -0.037902094423770905, -0.006307077594101429, -0.09339340776205063, -0.054461825639009476, -0.012449092231690884, -0.010961730033159256, -0.0064682322554290295, -0.003701652167364955, -0.03803848847746849, -0.023052914068102837, -0.028531381860375404, -0.08131580054759979, -0.005545326508581638, -0.03405662253499031, 0.010835357010364532, -0.009033270180225372, 0.10668494552373886, -0.07754305750131607, -0.06798951327800751, -1.303873723372817E-4, 0.01641249656677246, 0.06331244856119156, 0.0285613015294075, -0.037753574550151825, 0.033136967569589615, 0.03174665942788124, -0.09508643299341202, -0.05328497290611267, -0.012222593650221825, 0.011974244378507137, 0.019769469276070595, 0.06872332096099854, -0.04421566426753998, 0.09387556463479996, 0.012701733037829399, 0.021038642153143883, 0.017200248315930367, -0.024036364629864693, 0.046524010598659515, 0.027714887633919716, 0.04909391701221466, 0.07594599574804306, 0.13225466012954712, 0.16212695837020874, 0.12678493559360504, -0.03403680771589279, -0.003058759029954672, -0.04202800244092941, -0.02117159776389599, -0.016009243205189705, -0.04054636135697365, 0.0592615120112896, 0.004660107661038637, 0.014124557375907898, 0.08603271842002869, 0.051965150982141495, 0.08176778256893158, -0.05910831689834595, 0.021188052371144295, 0.019637081772089005, -0.017455052584409714, 0.05714757740497589, 0.02407296746969223, 0.1392659842967987, 0.10787677019834518, 0.0019277349347248673, 0.10312284529209137, 0.17861901223659515, -0.009790889918804169, 0.1291632056236267, 0.2026311606168747, 0.12658429145812988, 0.049523528665304184, -0.008763800375163555, -0.012192726135253906, 0.09587244689464569, -0.02992338314652443, 0.04213368147611618, 0.020471906289458275, 0.019785579293966293, -0.0058746119029819965, -0.008690815418958664, 0.04407018795609474, -0.09033981710672379, 0.007383293006569147, -0.078104667365551, 0.012140355072915554, 0.029416264966130257, -0.06524930149316788, 0.006879801861941814, 0.037432961165905, 0.013960858806967735, 0.1350235790014267, 0.0655042827129364, -0.033237654715776443, 0.07706227153539658, -0.05887623503804207, 0.023004014045000076, 0.019007110968232155, -0.030481725931167603, 0.022545168176293373, 0.006224950309842825, -0.09054309874773026, 0.033031854778528214, 0.037932489067316055, 0.06419146806001663, -3.593486617319286E-4, -0.056469112634658813, 0.037245240062475204, 0.05462299659848213, 0.0027283839881420135, -0.007695711683481932, 0.00643721641972661, -0.06327386945486069, -0.039846085011959076, -0.052366405725479126, 0.04330872744321823, -0.0577523298561573, -2.4986089556477964E-4, 0.022872060537338257, -0.013879677280783653, 0.09572970867156982, 7.163638947531581E-4, -0.06806012988090515, -0.28398388624191284, -0.20554886758327484, -0.18634550273418427, -0.1930031031370163, -0.1636054664850235, -0.013370182365179062, -0.09316857904195786, 0.05450742319226265, -0.0059687248431146145, 0.07308388501405716, 0.004553927108645439, -0.02191769704222679, -0.0016598455840721726, 0.06695208698511124, 0.056238286197185516, 0.0526692233979702, -0.04187282919883728, 0.05104771628975868, 0.024857638403773308, 0.013998763635754585, -0.05308928340673447, -0.048688989132642746, 0.023100223392248154, 0.02382810041308403, -0.03699246421456337, -0.023681292310357094, -0.11051373928785324, -0.2560237944126129, -0.247598335146904, -0.35676202178001404, -0.2621029317378998, -0.2099567949771881, -0.14046508073806763, -0.04691922292113304, -0.05080582946538925, 0.08289878070354462, -0.0010719452984631062, 0.10831700265407562, 0.08020755648612976, 0.01296014990657568, -0.0749015212059021, 0.017802657559514046, 0.062183305621147156, 0.0728980153799057, -0.00967931654304266, 0.060143034905195236, 0.014135618694126606, -0.1545201689004898, -0.06214967370033264, 0.012435677461326122, -0.039769094437360764, 0.05900096148252487, 0.006565857212990522, 0.03593237325549126, -0.04220705106854439, -0.18473374843597412, -0.20941193401813507, -0.3948464095592499, -0.21810105443000793, -0.17520658671855927, -0.11980785429477692, -0.07313821464776993, 0.057735178619623184, -0.011755409650504589, 0.05383237823843956, -0.08739154040813446, -0.11453092098236084, 0.013536852784454823, -0.03314245492219925, -0.04398033395409584, 0.0693729966878891, -0.04765674099326134, -0.05535117909312248, -0.07476432621479034, -0.05894875526428223, 0.05045663192868233, -0.05293644964694977, -0.10462034493684769, 0.030687488615512848, -0.015929562970995903, 0.09687435626983643, 0.14311236143112183, 0.13722674548625946, -0.04622264206409454, -0.21767647564411163, -0.23351086676120758, -0.12438822537660599, 0.03587227314710617, 0.07665262371301651, 0.014390714466571808, -0.042049095034599304, -0.02589985355734825, 0.0055601708590984344, -0.054556816816329956, 0.007073685061186552, -0.026897462084889412, -0.037452977150678635, -0.012456374242901802, 0.02681034430861473, 0.020536428317427635, -0.05389826372265816, 0.058361709117889404, -0.008295363746583462, -0.07829957455396652, -0.09053656458854675, 0.09206610172986984, -0.029064049944281578, 0.11790331453084946, 0.14342892169952393, 0.27644744515419006, 0.1840163767337799, 0.019187944009900093, -0.2560161352157593, -0.08996082097291946, 0.04088825732469559, 0.12867668271064758, 0.12227003276348114, -0.014752736315131187, -0.01905975118279457, -0.011962714605033398, 0.030606897547841072, 0.07916506379842758, 0.13295885920524597, 0.006433357484638691, 0.11765386164188385, -0.04025854170322418, -0.013647820800542831, -0.11644375324249268, -0.03807995095849037, -0.03898658975958824, -0.013023726642131805, -0.03874395415186882, 0.03675321489572525, 0.05338665097951889, -0.017150288447737694, 0.057233776897192, 0.2258162498474121, 0.3902047574520111, 0.3179420232772827, 0.04210292920470238, -0.07991894334554672, 0.024294652044773102, 0.09959954023361206, 0.18443624675273895, 0.032986246049404144, 0.00646907789632678, 0.037738822400569916, 0.01633486896753311, 0.01607113890349865, 0.0945839136838913, 0.03368455544114113, 0.0298828836530447, 0.02866348624229431, -0.02990790084004402, 0.0718497633934021, -0.07827505469322205, 0.02586553990840912, -0.042024388909339905, -0.02916092984378338, 0.04498211294412613, 0.011365346610546112, 0.021829623728990555, 0.09259313344955444, 0.19260509312152863, 0.24547387659549713, 0.2992316782474518, 0.2751196026802063, -0.03388247266411781, -0.046510472893714905, 0.08285524696111679, 0.2758776843547821, 0.1622779369354248, -0.017637385055422783, 0.08387154340744019, 0.009783659130334854, -0.045269791036844254, 0.0034950703848153353, 0.08606267720460892, 0.03410525992512703, -0.029677631333470345, -0.02809605561196804, -0.008291206322610378, -0.002645406173542142, -0.027731861919164658, -0.03416721895337105, -0.07099153846502304, 0.0783754363656044, 0.08484893292188644, 0.05218624323606491, 0.005504833534359932, 0.22765953838825226, 0.02365080825984478, 0.25776979327201843, 0.3181580901145935, 0.17653773725032806, 0.014858133159577847, -0.04019588977098465, 0.10605508834123611, 0.17527131736278534, 0.06168108433485031, 0.06979163736104965, -0.02807791903614998, -0.04613671451807022, -0.03607356548309326, 0.1197257712483406, 0.01537367608398199, -0.0390552394092083, 0.03759728744626045, -0.007830152288079262, 0.09874770045280457, 0.04515008255839348, -0.004256259184330702, -0.08896221965551376, 0.008677165023982525, -0.01891927607357502, -0.011587630026042461, 0.06972561776638031, 0.030415775254368782, 0.1178756058216095, 0.14561477303504944, 0.2536345422267914, 0.31055358052253723, 0.05460595712065697, 0.033667005598545074, -0.06199125573039055, 0.09109444916248322, -0.03989262133836746, 0.024388860911130905, 0.10180157423019409, 0.07743664085865021, -0.0023131375201046467, 0.03948819637298584, 0.12911544740200043, -0.0042625656351447105, 0.049071040004491806, -0.015812044963240623, 0.031092358753085136, 0.010241370648145676, -0.03081083483994007, -0.039358388632535934, 0.07100431621074677, -0.0021371529437601566, -0.04976934194564819, 0.011303383857011795, -0.00630206661298871, -0.08060242235660553, 0.0895349532365799, 0.1879165768623352, 0.2322484254837036, 0.13183851540088654, 0.11183477938175201, -0.10926220566034317, -0.03230888769030571, 0.08069309592247009, 0.01707756705582142, 0.04504263773560524, 0.10136232525110245, 0.043485842645168304, 0.12372230738401413, 0.016912899911403656, -0.026313582435250282, 0.01752704754471779, 0.0651102215051651, 0.07144308090209961, -0.037387482821941376, -0.048967763781547546, -0.03747672587633133, 0.061005089432001114, -0.0803738683462143, -0.08209765702486038, -0.02995767630636692, -0.026685426011681557, 0.0014010861050337553, 0.05195585638284683, 0.11709512025117874, 0.1722640097141266, 0.12552078068256378, 0.0642290934920311, 0.0064652711153030396, -0.10212711244821548, -0.1251668483018875, -0.003959410823881626, 0.08304750174283981, 0.04071596637368202, 0.1010013148188591, 0.09108255803585052, 0.008885771036148071, 0.047214508056640625, -0.04997611045837402, 0.0033017161767929792, 0.06419016420841217, 0.02662474289536476, -0.09229450672864914, 0.006857065949589014, 0.04914476349949837, 0.03425250202417374, 0.0016415900317952037, -0.06382383406162262, -0.0011514357756823301, -0.056439321488142014, -0.08147459477186203, 0.05740804597735405, -0.028813140466809273, 0.016529284417629242, 0.09240657836198807, 0.03323737159371376, -0.08696290105581284, -0.030266007408499718, -0.07725808769464493, -0.06599964201450348, 0.00908032339066267, 0.16503258049488068, 0.09192384034395218, 0.07557372748851776, 0.010400183498859406, 0.00859864056110382, 0.13165095448493958, -0.01678498648107052, -0.0034002019092440605, 0.034992024302482605, 0.010622598230838776, 0.06493441760540009, -0.010317380540072918, 0.058439746499061584, 0.05301560461521149, 0.0472482331097126, -0.014296191744506359, -0.007331801578402519, 0.008739910088479519, -0.045443326234817505, 0.051661454141139984, 0.010398516431450844, 0.01468780729919672, -0.04926064983010292, -0.056569673120975494, -0.0372227281332016, -0.07043049484491348, 0.029596665874123573, 0.11702253669500351, 0.13690879940986633, 0.08267610520124435, 0.1517697125673294, 0.09240863472223282, 0.10323276370763779, 0.019133636727929115, -0.12927444279193878, -0.016381463035941124, -2.5555220781825483E-4, -0.003012438304722309, -0.05113569274544716, 0.06946117430925369, 0.03930952027440071, -0.010190472938120365, -0.048500899225473404, -0.025444582104682922, -0.059770043939352036, -0.07644476741552353, -0.10423719137907028, -0.13051457703113556, -0.0657920315861702, -0.0380028672516346, 0.007074643857777119, 0.02731873281300068, -0.05418698862195015, -0.01585426740348339, 0.046040866523981094, -0.0037637557834386826, 0.07682837545871735, 0.06114652007818222, 0.019604234024882317, 0.08404039591550827, 0.10551020503044128, 2.2785316105000675E-4, 0.04910885542631149, 0.07394789159297943, -0.041364315897226334, -0.009623313322663307, 0.0038296543061733246, 0.0626874715089798, -0.056170668452978134, -0.007218730635941029, 0.039977964013814926, -0.086649090051651, 0.006043422035872936, -0.041756078600883484, 0.04520823806524277, -0.04474194347858429, -0.014057058840990067, -0.03758074715733528, 0.009553443640470505, -0.028428053483366966, 0.030313489958643913, -0.03795471787452698, 0.00845671258866787, -0.02453247830271721, 0.045618072152137756, 0.03796942159533501, -0.0022575133480131626, 0.17278306186199188, 0.0644996240735054, -0.06288279592990875, 0.04994865879416466, -0.07168908417224884, -0.055219616740942, 0.01109145674854517, 0.01419513113796711, 0.03554300218820572, 0.030999988317489624, 0.054634906351566315, -0.01308754738420248, 0.12431876361370087, -0.04572691768407822, -0.048929862678050995, 0.020164670422673225, -0.015119213610887527, -0.10568701475858688, 0.008600049652159214, 0.00934000127017498, 0.10622522234916687, 0.024232598021626472, 0.03201098367571831, -0.13324132561683655, -0.04004153609275818, -0.06617765873670578, 0.07491064071655273, -0.007258275523781776, 0.012140525504946709, -0.025732027366757393, 0.09081719815731049, 0.025583941489458084, -0.06241660192608833, 0.05226381868124008, 0.014976466074585915, 0.04036296531558037, -0.026767078787088394, -0.05660354346036911, -0.017764342948794365, 0.02283337339758873, 0.02815692126750946, -0.03565343841910362, 0.03946959227323532, -0.0029795251321047544, -0.019134141504764557, 0.0142501937225461, 0.08696968108415604, -0.04632246866822243, 0.025316741317510605, 0.007883458398282528, -0.09188443422317505, -0.04233073815703392, -0.037332095205783844, -0.03226783871650696, -0.007903476245701313, -0.038636092096567154, -0.01227553654462099, -0.011178186163306236, -0.09532220661640167, -0.0067182378843426704, -1.1000302038155496E-6, -0.050355542451143265, -0.01611519232392311, 0.009539096616208553, -0.05926748365163803, -0.045785386115312576, 0.018331576138734818, -0.04154391959309578, 0.07104228436946869, -2.4202640634030104E-4, -0.02311001904308796, -0.07380566745996475, -0.038215622305870056, -0.0599125511944294, -0.059679776430130005, -0.055949192494153976, -0.04091586172580719, -0.02942926064133644, -0.05377504229545593, 0.006307642441242933, -0.10591205209493637, -0.10318177938461304, 0.04907330870628357, -0.04351401701569557, -0.009487257339060307, -0.0020403205417096615, 0.005158478859812021, -0.0074705262668430805, 0.0461551733314991, 0.027224604040384293, 0.08269636332988739, -0.053590621799230576, -0.11550457030534744, -0.0390004962682724, -0.07332471013069153, -0.09190186113119125, 0.042001400142908096, 0.0557805597782135, -0.04998745396733284, 0.07425194978713989, -0.015116799622774124, 0.03503818064928055, -0.02822226844727993, -0.05530388280749321, 0.013150699436664581, -0.07235962897539139, -0.020302826538681984, -0.049423135817050934, -0.013928738422691822, 0.015499593690037727, -0.06545443832874298, 0.012480917386710644, 0.002756139263510704, 0.017509350553154945, 0.0822865441441536, 0.03574385866522789, 0.012708011083304882, 0.06134214997291565, 0.020988812670111656, -0.0683109238743782, 0.018890174105763435, -0.003543546888977289, -0.07229723036289215, -0.02252037823200226, 0.13182532787322998, -0.052286721765995026, -0.014189708977937698, 0.03672826290130615, -5.414252518676221E-4, -0.07257452607154846, -0.05131188780069351, 0.025941235944628716, -0.021527070552110672, 0.13745787739753723, -0.13310161232948303, 0.013940281234681606, -0.06122281029820442, 0.018132204189896584, 0.011093555949628353, -0.0175100676715374, -0.041585586965084076, -0.0015509368386119604, -0.03741667419672012, -0.04138878360390663, 0.008005024865269661, -0.0600951686501503, -0.004583579488098621, 0.020509621128439903 ]
      }, {
        "activation" : 0.9858905076980591,
        "biases" : -0.03112652525305748,
        "weights" : [ 0.05967395380139351, -0.0825134739279747, -0.031084513291716576, 0.002896989695727825, 0.022225171327590942, -0.04265478998422623, -0.014590151607990265, 0.03626377135515213, 0.04982341080904007, -0.025927186012268066, -2.459516399540007E-4, 0.030006686225533485, -0.003642033087089658, 0.034701667726039886, -0.01022504735738039, 0.03778211399912834, 0.030512645840644836, 0.04836251959204674, -0.020421158522367477, -0.0786796286702156, -0.05484982952475548, 0.039330221712589264, -0.009863395243883133, 0.04595780372619629, -0.01972661167383194, -0.06584563106298447, 0.10285405814647675, -0.06888178735971451, -0.040411531925201416, 0.1186467856168747, 0.004151363857090473, -0.003674832172691822, 0.008483191020786762, 0.06058897450566292, -0.0030547005590051413, 0.0051304311491549015, 0.005711336154490709, 0.07588110119104385, 0.03669807314872742, -0.02108447067439556, 0.06177811324596405, 0.005593802314251661, -0.011907580308616161, -0.02021576464176178, -0.004970921203494072, -0.06488680094480515, 0.08187126368284225, 0.007570618763566017, 0.006952282972633839, -0.002279223408550024, 0.08793268352746964, 0.031424522399902344, -0.005921804346144199, 0.056796595454216, -0.025560811161994934, -0.08960724622011185, -0.006922207772731781, -0.05259086564183235, 0.13847863674163818, 0.034391459077596664, 0.09678354859352112, -0.038698066025972366, -0.031267620623111725, 0.015423104166984558, 0.04040826857089996, 0.047397200018167496, -0.043737199157476425, 0.005741821136325598, 0.04295341297984123, -0.050338346511125565, 0.08556126058101654, 0.05479924753308296, 0.06089242175221443, 0.11379765719175339, 0.09993857890367508, 0.027073370292782784, -0.07766461372375488, -0.006400251295417547, 0.009943517856299877, 0.058140937238931656, 0.00386435491964221, 0.001360549358651042, -0.013174647465348244, -0.056182608008384705, -0.07569121569395065, -0.012061715126037598, -0.01834871992468834, -0.10268483310937881, -0.048101454973220825, -0.043492794036865234, 0.06699328869581223, 0.07070454955101013, 0.0036429697647690773, 0.08410225808620453, 0.08994054794311523, 0.10596513748168945, 0.04332982376217842, 0.1842721700668335, 0.11961428076028824, -0.013184623792767525, 0.04402414709329605, 0.06610174477100372, 0.06715430319309235, 0.14354386925697327, 0.062205925583839417, -0.021738287061452866, 0.05900375917553902, -0.07900366187095642, -0.12114697694778442, 0.02409980073571205, 0.05536189675331116, 0.06285054236650467, 0.02935861423611641, 0.01849018596112728, -0.06279366463422775, -0.02404911443591118, 0.01793554238975048, -0.02701348066329956, 0.08451221883296967, 0.04239046573638916, 0.06005227938294411, 0.017734654247760773, 0.08340767025947571, 0.10901368409395218, 0.11511361598968506, 0.1398938000202179, 0.05244096741080284, 0.05709598585963249, 0.16614146530628204, 0.048195309937000275, 0.03009854070842266, -0.08662395924329758, 0.006594069767743349, 0.03536447137594223, -0.03138379007577896, 0.06756411492824554, -0.008333500474691391, -0.04996740445494652, 0.005838939920067787, -0.06446328014135361, 0.022123374044895172, -0.02734512649476528, 0.09610176086425781, -0.048727847635746, -0.04646630957722664, -0.03525557368993759, 0.04780735448002815, 0.11166057735681534, 0.07557538896799088, 0.1264190971851349, 0.11454485356807709, -0.07228139042854309, 0.10398156940937042, 0.2166907638311386, 0.13413666188716888, 0.0927245244383812, -0.012343627400696278, 0.055445946753025055, 0.056176282465457916, -0.04175884276628494, -0.019530145451426506, 0.03551701083779335, -0.06184276193380356, 0.06695272773504257, -0.05403505265712738, 0.04404965043067932, 0.07666413486003876, -0.015523483045399189, 0.011840160936117172, 0.06733077019453049, 0.03299769386649132, -0.03439396619796753, 0.024720890447497368, 0.007375911809504032, 0.05140932649374008, 0.015306008979678154, 0.04426024854183197, 0.03680673614144325, 0.06059161201119423, 0.12312828749418259, 0.08155478537082672, 0.0667390301823616, 0.15235783159732819, 0.06599482148885727, 0.04183295741677284, 0.008470026776194572, 0.020172031596302986, 0.039044104516506195, -0.035266682505607605, 0.05298532918095589, 0.05496840924024582, 0.005671694874763489, -0.036045562475919724, 0.04528046399354935, -0.0515047051012516, 0.04545290768146515, 0.04728541895747185, -0.0999675840139389, 0.011294378899037838, -0.052668094635009766, -0.009162786416709423, 0.10042300820350647, -0.06987348943948746, -0.02330390177667141, 0.05369892716407776, -0.05455878749489784, -0.041920557618141174, 0.04358731210231781, 0.007714051753282547, 0.015533508732914925, 0.114741250872612, -0.011905672028660774, 0.055249620229005814, -0.06710318475961685, -0.16034439206123352, -0.0934649184346199, -0.017851097509264946, -0.08572368323802948, 0.0124255595728755, 0.06908572465181351, 0.10675761103630066, 0.018328983336687088, 0.014666636474430561, 0.0047728498466312885, 0.07185689359903336, 0.0243497546762228, -0.06575601547956467, -0.035436131060123444, 0.04159829765558243, -0.027094395831227303, -0.03781875595450401, 0.020939815789461136, -0.0520794503390789, -0.024896223098039627, -0.17744487524032593, -0.08277014642953873, -0.07720360904932022, -0.004183985758572817, 0.04119398072361946, -0.022501854225993156, -0.08210288733243942, -0.223728746175766, -0.25052371621131897, -0.08723726868629456, -0.20723344385623932, -0.11405406892299652, 8.587650372646749E-4, 0.07531106472015381, 0.14331740140914917, 0.018295709043741226, 0.010620447807013988, -0.018634330481290817, 0.012235627509653568, -0.009419212117791176, -0.018371328711509705, -0.018607450649142265, 0.03437424451112747, -0.06754512339830399, -0.13066250085830688, -0.1529332995414734, -0.06644394993782043, -0.029447343200445175, -0.019818231463432312, -0.005429343786090612, -0.08351954817771912, -0.09251152724027634, -0.02808835729956627, -0.046396393328905106, -0.05454929545521736, -0.3040059804916382, -0.2849963903427124, -0.172315314412117, -0.18675266206264496, -0.15504588186740875, -0.12831807136535645, -0.10106700658798218, -0.0044682826846838, 0.005245899315923452, -0.036675237119197845, 0.043931253254413605, -0.030841365456581116, 0.07939393073320389, 0.010011615231633186, 0.03112095221877098, -0.037376757711172104, -0.0120014026761055, 0.015799768269062042, -0.07572769373655319, -0.025410408154129982, -0.12693046033382416, -0.14626505970954895, -0.05045488476753235, -0.09881503134965897, -0.07359418272972107, 0.07010762393474579, -0.03451595827937126, -0.13331149518489838, -0.32145363092422485, -0.24255847930908203, -0.2821798324584961, -0.21395941078662872, -0.11679884046316147, -0.1288851946592331, -0.04081859812140465, -0.03239412605762482, 0.05488670989871025, 0.019388753920793533, 0.10160449147224426, 0.09442563354969025, -0.035901449620723724, 0.015542570501565933, -0.08925706893205643, 0.04274231195449829, -0.005126866512000561, -0.04996856302022934, -0.047203075140714645, -0.015145748853683472, -0.06437758356332779, -0.11478008329868317, -0.1484074741601944, 0.08034716546535492, 0.053891997784376144, 0.2090052217245102, 0.1459188163280487, -0.12343679368495941, -0.22806622087955475, -0.2156473696231842, -0.23941059410572052, -0.16292764246463776, -0.1691761016845703, -0.08676624298095703, -0.11898202449083328, -0.07940826565027237, -0.02067922241985798, 0.014433622360229492, -0.12452895939350128, -0.0848870500922203, -0.020854352042078972, 0.02739664725959301, -0.014142172411084175, 0.07253432273864746, -0.028051577508449554, -0.07683885842561722, -0.1576635241508484, -0.08865805715322495, -0.006428965367376804, 0.07840337604284286, 0.07557344436645508, 0.0981641411781311, 0.3097642660140991, 0.318979948759079, 0.2905532717704773, -0.05882159620523453, -0.08153402805328369, -0.12383317202329636, -0.13672296702861786, -0.08091045916080475, -0.146330326795578, -0.31631001830101013, -0.08550509810447693, -0.016301052644848824, 0.1286611557006836, -0.06954880803823471, 0.0661354660987854, 0.026811350136995316, 0.008337553590536118, 0.07740273326635361, -0.06086701527237892, -0.007868883199989796, -0.10412156581878662, -0.15911822021007538, -0.17300184071063995, -0.02870742417871952, -0.10451896488666534, -0.06907454878091812, 0.061701804399490356, 0.2535347044467926, 0.4141194820404053, 0.4129927456378937, 0.2389020472764969, 0.023094356060028076, 0.01717739924788475, 0.007511381059885025, -0.015636922791600227, -0.17285184562206268, -0.1728917807340622, -0.0904567688703537, -0.1497298628091812, -0.0177714042365551, -0.012423635460436344, 0.02228245884180069, 0.08207197487354279, -0.015573871321976185, -0.007456722669303417, -0.013431691564619541, -0.026692131534218788, -0.0812641903758049, -0.08984352648258209, -0.09772463142871857, -0.1766522377729416, -0.12782099843025208, -0.038953859359025955, -0.08466272056102753, 0.08457251638174057, 0.2925361096858978, 0.38460972905158997, 0.4500962793827057, 0.18172387778759003, 0.004465455189347267, -0.0676799789071083, -0.014042326249182224, -0.029265033081173897, -0.1689104288816452, -0.1317284256219864, -0.06054724007844925, -0.10366059839725494, -0.08668585121631622, -0.07833334058523178, 0.024420950561761856, -0.06671854108572006, 0.0014023714466020465, -0.01657450571656227, 0.09520834684371948, 0.038457922637462616, -0.0367729514837265, -0.09333447366952896, -0.11968046426773071, -0.22859451174736023, -0.15250620245933533, -0.06901202350854874, -0.10913411527872086, 0.06516318768262863, 0.17120780050754547, 0.3513047397136688, 0.31545019149780273, 0.08544953912496567, -0.03047141805291176, -0.05908244848251343, -0.07233897596597672, -0.07197517901659012, -0.10326933115720749, 0.0026220339350402355, -0.062344904989004135, -0.003206568071618676, -0.025011997669935226, 0.08598486334085464, -0.058940645307302475, -0.10879886150360107, 0.030606701970100403, -0.029969247058033943, 0.03258366510272026, -0.07303404062986374, -0.021261589601635933, -0.05229274556040764, -0.11484251916408539, -0.10111130028963089, -0.22035111486911774, -0.12373293936252594, -0.1676313430070877, -0.036308206617832184, 0.27420130372047424, 0.1683950126171112, 0.186460480093956, -0.09395834803581238, -0.06523729860782623, -0.10757359117269516, -0.018334830179810524, -0.11845269054174423, 0.0046006664633750916, 0.030685480684041977, -0.05793445184826851, 0.04649012163281441, 0.06573967635631561, 0.08467045426368713, 0.01631631888449192, -0.03852791711688042, -0.09545152634382248, 0.06463748961687088, 0.015639828518033028, 0.06264752894639969, 0.01775340735912323, -0.11322563141584396, -0.10439392179250717, -0.17320777475833893, -0.05451240390539169, -0.16247516870498657, 0.015587236732244492, 0.0760764554142952, 0.23233696818351746, 0.0777074322104454, 0.0842069461941719, -0.020892607048153877, -0.046918708831071854, -0.07239259034395218, -0.00749604869633913, 0.056794486939907074, 0.044005878269672394, 0.04928271472454071, 0.0341431125998497, -0.020865608006715775, 0.14414915442466736, 0.0163403507322073, -0.05314173921942711, -0.04857858642935753, -0.0453939363360405, 0.045038722455501556, 0.016625426709651947, 0.03200743347406387, 0.051738202571868896, -0.009894818998873234, 0.06352324038743973, 0.033418890088796616, -0.1008794978260994, 0.016746139153838158, 0.13158850371837616, 0.14357468485832214, 0.13709847629070282, 0.09409679472446442, -0.011676068417727947, 0.01856394298374653, 0.03142910078167915, 0.08057540655136108, 0.11993642896413803, 0.1731204241514206, 0.026358220726251602, 0.05810005962848663, 0.12829536199569702, 0.05613083019852638, -0.004884004592895508, -0.06153873726725578, -0.06107955053448677, 0.011503835208714008, 0.008342943154275417, 0.015096390619874, 0.025993989780545235, 0.050174664705991745, 0.07863541692495346, 0.023534590378403664, -0.029648348689079285, 0.00485360249876976, 0.17184746265411377, 0.09418606758117676, 0.1736721396446228, 0.27680841088294983, 0.189311683177948, 0.06276459991931915, 0.07541462033987045, 0.0577818863093853, 0.06085703894495964, 0.1864972859621048, 0.17912696301937103, 0.12857620418071747, 0.1350145936012268, 0.03756077587604523, 0.09695330262184143, 0.023631557822227478, 0.014707051217556, 0.02075706422328949, 0.07163094729185104, -0.03008970059454441, -0.046301309019327164, -0.017768455669283867, -0.0432833731174469, 0.1217670887708664, 0.031095080077648163, 0.0790107324719429, 0.07951478660106659, 0.0019315797835588455, 0.1094452515244484, 0.17020565271377563, 0.16487406194210052, 0.14668017625808716, 0.11071977019309998, 0.08531296253204346, 0.1567676067352295, 0.08622010797262192, 0.11329419910907745, 0.06589923053979874, 0.09325020760297775, 0.11699013411998749, 0.08885269612073898, 0.08053647726774216, -0.018428899347782135, 0.12501387298107147, -0.02105683833360672, -0.040416598320007324, -0.046859413385391235, 0.006784595083445311, 0.020333314314484596, -0.0075873518362641335, 0.04027083143591881, 0.022586639970541, -0.06029442697763443, 0.005167483817785978, 0.12917543947696686, 0.13329440355300903, 0.09851887077093124, 0.021255142986774445, 0.07288675755262375, -0.004777156747877598, 0.033779796212911606, 0.056023139506578445, 0.07050935178995132, -0.009415357373654842, 0.05043911561369896, 0.09419620782136917, 0.19935649633407593, 0.02579873614013195, -0.012569666840136051, 0.06772315502166748, -0.11691434681415558, 0.08455560356378555, 0.05801111459732056, 0.09083819389343262, -0.00902935117483139, 0.028600895777344704, -0.01731616072356701, -0.07514335960149765, 0.04303395003080368, 0.0023210926447063684, 0.007431624922901392, 0.10794647783041, 0.06837808340787888, 0.16008302569389343, 0.11485020816326141, 0.010744364000856876, -0.0574536994099617, -0.06643106788396835, -0.09433897584676743, -0.03727606683969498, 0.03006090596318245, 0.020724255591630936, -0.03723765164613724, -0.01217614859342575, 0.02185208909213543, 0.07926637679338455, 0.014936539344489574, 0.18767119944095612, 0.021397216245532036, 0.00993370357900858, 0.071275494992733, 0.01068207435309887, 0.021977553144097328, -0.05514220893383026, -0.0051784091629087925, -0.005307717248797417, -0.02126980945467949, 0.09391213208436966, 0.035131823271512985, 0.06298601627349854, 0.051985204219818115, 0.05570841580629349, 0.005077454261481762, 0.06105835735797882, 0.003459102939814329, -0.005072237458080053, -0.032103706151247025, -0.08142626285552979, 0.018441300839185715, -0.030273474752902985, 0.05765717849135399, 0.04516952112317085, 0.03644976019859314, -0.019996967166662216, 0.01127482857555151, 0.019746648147702217, 0.021467238664627075, 0.11873883754014969, -0.029874324798583984, 0.04390982538461685, 0.012729005888104439, 0.03969651833176613, -0.0316978357732296, 0.06571558117866516, 0.08383608609437943, 0.07457412034273148, -0.012394220568239689, -0.005373492371290922, -0.07708629965782166, 0.05432431772351265, -0.027940653264522552, 0.07385546714067459, -0.10572969913482666, 0.035967640578746796, 0.01970551162958145, 0.06044188141822815, -0.00654755299910903, -0.050574999302625656, 0.07379510998725891, 0.03409907594323158, -0.0645369216799736, -0.08477623760700226, -0.035065118223428726, -0.003690487938001752, 0.08217040449380875, 0.03855356201529503, 0.014933804981410503, -0.0044920253567397594, 0.05619439482688904, -0.02362513728439808, 0.02799198403954506, -0.08430562913417816, -0.0021397124510258436, 0.018145309761166573, 0.05188872665166855, -0.05741770565509796, 0.035690683871507645, -0.028783706948161125, -0.0398845374584198, -0.07954438030719757, -0.15590651333332062, -0.020068950951099396, -0.015147778205573559, -0.03700985014438629, -0.09197624772787094, -0.07948046922683716, -0.07585809379816055, -0.07145718485116959, -0.01620420441031456, -0.05484353378415108, 0.008896797895431519, -0.03806305304169655, -0.0906827300786972, 0.11350313574075699, -0.036024320870637894, -0.010874566622078419, -0.03776950389146805, -0.07941487431526184, -0.1515590101480484, 0.007781004533171654, -0.015380301512777805, 0.03143111988902092, -0.009818081744015217, 0.04565119743347168, 0.02022688463330269, -0.005627118982374668, -0.03441425412893295, -0.04258384928107262, -0.04844129458069801, 0.01367497630417347, -0.07629898190498352, -0.023380424827337265, -0.06788448244333267, 0.00136474147439003, 0.027852656319737434, -0.07900648564100266, 0.018087847158312798, -0.023730555549263954, -0.003281363984569907, 0.010254358872771263, -0.01008557714521885, -0.05211310088634491, -0.033102188259363174, -0.04612784832715988, -0.11607079952955246, -0.019696054980158806, -0.03599601984024048, -0.08349841833114624, 0.02741061896085739, 0.06216142699122429, -0.0858897715806961, -0.007040414493530989, 0.04004077985882759, 0.05752069875597954, 0.11880882829427719, 0.005497446749359369, 0.07326851785182953, 0.027667835354804993, -0.08748283982276917, 0.05112080276012421, -0.04509216547012329, -0.025365756824612617, 0.04825853556394577, -0.09637869149446487, 0.04734324663877487, 0.07685782760381699, 0.06255265325307846, -0.01935053989291191, 0.0357796885073185, 0.042260728776454926, 0.013488213531672955, -0.03945961967110634, -0.025283873081207275, 0.042120788246393204 ]
      }, {
        "activation" : 0.8587619066238403,
        "biases" : -0.1421242356300354,
        "weights" : [ -0.0015160422772169113, 0.009122822433710098, 0.018830513581633568, 0.08355347067117691, -0.017070336267352104, 0.003297696355730295, 0.10493304580450058, 0.05719999596476555, -0.0038080147933214903, 0.04740623012185097, 0.016512369737029076, 0.06084258481860161, 0.06364773213863373, -0.07106484472751617, 0.02423701249063015, -0.08359524607658386, 0.0034785845782607794, -0.008971329778432846, -0.015975449234247208, 0.039085518568754196, 0.07825116068124771, -0.07785625010728836, -0.02732389234006405, -0.06255316734313965, 0.03418237343430519, 8.92125244718045E-4, 0.013755394145846367, -0.042729854583740234, -0.03698486089706421, -0.03539903834462166, -0.029633687809109688, 0.02580503560602665, 0.028441861271858215, 0.09596113115549088, -0.05178384855389595, 0.0024641286581754684, -0.02956671081483364, 0.03840473294258118, -0.05057268589735031, -0.1321263164281845, -0.011051052249968052, -0.041338127106428146, -0.051677022129297256, 0.04170135781168938, -0.010191435925662518, 0.02053835615515709, -0.03690353408455849, 0.06881456077098846, 0.05552017316222191, -0.1283893883228302, 0.007837451994419098, -0.05989411100745201, -0.0033256541937589645, 0.07248745113611221, 0.012476582080125809, 0.007615489419549704, 0.05797397345304489, 0.010256066918373108, 0.009528236463665962, -0.052559543401002884, 0.05621921643614769, 0.0697457492351532, -0.012008225545287132, -0.010761617682874203, 0.08376149088144302, -0.06300780922174454, -0.023916060104966164, -0.06501679867506027, -0.010295809246599674, -0.001643118099309504, -0.11058016121387482, -4.7889092820696533E-4, -0.12364852428436279, 1.4230325177777559E-4, -0.002043812070041895, -0.0013211837504059076, -0.018444998189806938, -0.03197217360138893, -0.04560777544975281, -0.031781136989593506, -0.012158960103988647, -0.0039366791024804115, 0.07174991071224213, 0.033614180982112885, 0.01833704113960266, -0.06643348187208176, -0.0679946318268776, -0.043387237936258316, 0.0387958362698555, -0.02005423605442047, -0.0439811609685421, -0.09992963820695877, -0.05597167834639549, 0.041160110384225845, 0.025485480204224586, -0.029063256457448006, 0.0786294937133789, 0.05815843865275383, 0.012425458990037441, -0.02518237754702568, -0.09143947064876556, -0.11071240156888962, 0.020988671109080315, -0.07867980748414993, -0.012350291945040226, -0.08175432682037354, -0.05190899595618248, -0.06976453214883804, -0.04347331076860428, 0.051802050322294235, -0.0225217342376709, 0.07465201616287231, 0.008261030539870262, 7.220620173029602E-4, -7.16805865522474E-4, -0.012840980663895607, -0.008459026925265789, -0.004116585478186607, -0.07112594693899155, -0.04535214230418205, 0.12007371336221695, 0.09026072174310684, -0.020772093906998634, 0.004607495851814747, 0.06372806429862976, 0.1209888607263565, 0.16864937543869019, 0.05158097669482231, 0.05935797095298767, 0.00757707329466939, -0.05315956845879555, -0.1184522807598114, -0.08796132355928421, -0.06733419746160507, -0.16321468353271484, -0.005980528891086578, -0.029594559222459793, 0.09822253882884979, 0.04655113443732262, 0.024340692907571793, 0.020975295454263687, 0.03795399144291878, -0.07687117904424667, 0.034201730042696, 0.02562984637916088, 0.0399884432554245, -0.002291999524459243, 0.052348483353853226, -0.04426087066531181, 0.02095748856663704, 0.087391696870327, 0.05646958574652672, 0.16963933408260345, 0.12185896188020706, 0.2495989203453064, 0.18204690515995026, 0.14498978853225708, 0.007635321002453566, -0.03687451407313347, -0.019538400694727898, -0.003588263876736164, -0.014423717744648457, -0.09504281729459763, -0.15400882065296173, -0.06075417995452881, 0.017646633088588715, -0.04193555936217308, -0.0043524643406271935, -0.008327762596309185, 0.054830629378557205, 0.03550122305750847, -0.1079217791557312, -0.014816519804298878, 0.004597407300025225, 0.03552688658237457, -0.013908244669437408, 0.08716993033885956, 0.1803807020187378, 0.1607723832130432, 0.0793328732252121, 0.08404821157455444, 0.16862140595912933, 0.17564086616039276, 0.16663207113742828, 0.13704685866832733, 0.20943044126033783, 0.04853888228535652, -0.08929529041051865, -0.0035593444481492043, -0.029158921912312508, -0.07985866814851761, -0.12627656757831573, -0.02459007129073143, -0.03421809524297714, 0.030458694323897362, -0.0766967311501503, -0.062230128794908524, 0.028233347460627556, -0.04517209529876709, 0.1153266504406929, 0.09160011261701584, 0.03625836595892906, 0.0782826840877533, 0.06111588329076767, 0.01740203984081745, 0.051881369203329086, 0.07597595453262329, 8.368251146748662E-4, 0.05141569674015045, 0.07004942744970322, 0.19273675978183746, -0.03299818933010101, -0.009038092568516731, 0.10033219307661057, -0.015223642811179161, 0.009909854270517826, 0.07615642249584198, 0.024623122066259384, -0.07347298413515091, -0.11394872516393661, -0.07820914685726166, 0.02810370735824108, 0.012638422660529613, 0.02630080282688141, 0.07233487069606781, -0.017231814563274384, 0.013524575158953667, -0.014572649262845516, -0.002420671982690692, 0.06221499666571617, 0.08359400182962418, 0.08538511395454407, 0.08037930727005005, 0.09328853338956833, 0.06996781378984451, 0.15125422179698944, -0.010449505411088467, 0.0962551012635231, 0.0422375425696373, 0.1750282645225525, 6.140331388451159E-4, 0.0713275894522667, 0.08679529279470444, 0.11522507667541504, 0.02321922592818737, 0.014017714187502861, 0.07103598862886429, -0.009455198422074318, 0.00229011126793921, -0.07278768718242645, -0.11746995896100998, -0.013304882682859898, -0.08025427907705307, 0.04517810419201851, 0.075846366584301, 0.07385928928852081, 0.08848101645708084, 0.06815462559461594, 0.15493114292621613, 0.04899218678474426, 0.0034707121085375547, -0.029684903100132942, 0.028627097606658936, -0.05056294426321983, -0.07153545320034027, -0.030996818095445633, 0.05352863669395447, 0.10653894394636154, 0.15912632644176483, 0.13858141005039215, 0.15805326402187347, 0.16769246757030487, 0.13905425369739532, 0.00992625579237938, -0.020890941843390465, -0.015232502482831478, -0.03356900438666344, -0.01843355968594551, 0.04937262833118439, -0.045014578849077225, -0.0032368400134146214, -0.030499408021569252, -0.05331758037209511, -0.09390706568956375, 0.01475523505359888, -0.005590452346950769, -0.03690866380929947, 0.001985983457416296, 0.020254813134670258, -0.026087509468197823, -0.07836580276489258, -0.10568726062774658, -0.14944522082805634, -0.03407321125268936, 0.07687270641326904, 0.14070281386375427, 0.056917425245046616, 0.10842960327863693, 0.17404092848300934, 0.1742047667503357, 0.1937309354543686, 0.12086976319551468, -0.03592459484934807, 0.07277679443359375, -0.009953174740076065, -0.04664088785648346, 0.07402461767196655, -0.04974904656410217, 0.038032811135053635, -0.0984339788556099, 0.016180040314793587, 0.1053113043308258, 0.06171386316418648, -0.11782042682170868, 0.005919432267546654, -0.08469050377607346, -0.13439078629016876, -0.1347421109676361, -0.3117988705635071, -0.24284900724887848, -0.16900750994682312, 0.04896990954875946, 0.13795091211795807, 0.19691403210163116, 0.07464586198329926, 0.027555173262953758, 0.15273554623126984, 0.2282417267560959, 0.2127404659986496, 0.10896631330251694, 0.05952203646302223, 0.032109055668115616, 8.865015115588903E-4, 0.006886240094900131, 0.04087664559483528, -0.022293565794825554, 0.031413495540618896, -0.05997695401310921, 0.1408533900976181, 0.01960357464849949, -0.020595569163560867, -0.005729335825890303, -0.1272852122783661, -0.15296348929405212, -0.2970872223377228, -0.24574869871139526, -0.35720720887184143, -0.2600225508213043, -0.24717602133750916, 0.02301996387541294, 0.12096230685710907, 0.11922010034322739, 0.005818628240376711, -0.09263778477907181, 0.21747416257858276, 0.1555914282798767, 0.06456802785396576, 0.06431090086698532, 0.014507702551782131, -0.12233320623636246, 0.048594776540994644, 0.03179984539747238, -0.061201516538858414, -0.008638957515358925, -0.03555423021316528, -0.06297287344932556, 0.007548399735242128, 0.0115183861926198, 0.048188067972660065, -0.07754961401224136, -0.09693581610918045, -0.24790242314338684, -0.31539279222488403, -0.2612161338329315, -0.3796613812446594, -0.3280930817127228, -0.11292041838169098, 0.122220478951931, 0.09229187667369843, 0.09841025620698929, 0.006156678311526775, 6.691439775750041E-4, 0.045956674963235855, 0.025860989466309547, -0.1459857076406479, -0.013957018963992596, -0.15477626025676727, -0.025327349081635475, 0.012436837889254093, -0.014358683489263058, 0.009718443267047405, -0.0243260245770216, -0.010685118846595287, -0.0902101993560791, -0.05457988381385803, -0.01671425625681877, -0.07563460618257523, -0.0743916779756546, -0.1686212718486786, -0.26281821727752686, -0.2659112811088562, -0.28400084376335144, -0.4033476710319519, -0.27656665444374084, -0.10202016681432724, 0.08070265501737595, 0.12513963878154755, 0.11207053065299988, -0.1119837611913681, -0.08842778950929642, -0.05659753456711769, -0.0741838738322258, -0.04333202540874481, -0.05099872127175331, -0.01656753569841385, -0.1262156218290329, 0.018995387479662895, -0.025120628997683525, -0.03854472562670708, 0.027642516419291496, -0.05899234116077423, -0.011934388428926468, 0.06394468992948532, -0.07408253103494644, -0.0014765503583475947, -0.010750295594334602, -0.1614283323287964, -0.11063075810670853, -0.24287408590316772, -0.22829613089561462, -0.2795608639717102, -0.2086656242609024, 0.009189914911985397, 0.1816512495279312, 0.02220284380018711, 0.018596407026052475, -0.014765354804694653, -0.07977751642465591, -0.078130804002285, -0.06164924055337906, -0.052409619092941284, -0.03986712917685509, -0.08751790970563889, -0.019621258601546288, 0.006370941177010536, 0.049774352461099625, 0.009659327566623688, -0.028954731300473213, -0.08114868402481079, -0.03997175395488739, -0.06408170610666275, -0.009689165279269218, 0.0490100160241127, 0.0023817680776119232, -0.014990799129009247, -0.19287936389446259, -0.2303708791732788, -0.16889123618602753, -0.07234903424978256, -0.01154528558254242, 0.05453937128186226, 0.05801708996295929, 0.09242679923772812, -0.03548175096511841, -0.16303104162216187, -0.19397449493408203, -0.09315703064203262, 0.008155814372003078, -0.10458794236183167, -0.05975300073623657, -0.01102710235863924, 0.07771680504083633, 0.0043842545710504055, 0.022199852392077446, -0.031438156962394714, -0.010537546128034592, 0.04200347512960434, -0.04486473649740219, 0.018992634490132332, 0.03572667017579079, 0.011712424457073212, -0.05751059576869011, 0.017102066427469254, -0.11127312481403351, -0.15216408669948578, -0.01316501758992672, 0.004314481280744076, 0.07838550955057144, 0.020443959161639214, 0.13329173624515533, 0.08513998240232468, 0.05640216916799545, -0.06508475542068481, -0.04901452362537384, -0.02983621507883072, -0.16952109336853027, -0.007064659148454666, 0.01428097952157259, -0.05809235945343971, -0.025171920657157898, -0.012132212519645691, -0.02608169987797737, -0.046093132346868515, -0.05650215968489647, 0.01181637030094862, 0.008176174946129322, 0.002168420935049653, 0.001885225996375084, -0.0013347151689231396, 0.05554032325744629, -0.059833548963069916, -0.002939089434221387, -0.00455649197101593, 0.051978856325149536, 0.04330228269100189, 0.1459658145904541, 0.13992534577846527, 0.1352464258670807, 0.03675229474902153, -0.0473407506942749, -0.048300210386514664, -0.08646237105131149, -0.014884867705404758, -0.019954070448875427, 0.04274146258831024, -0.018468039110302925, 0.05887855216860771, -0.07364177703857422, 0.01772094890475273, 0.038907457143068314, 0.020780466496944427, -0.08370228111743927, -0.014724662527441978, -0.016216017305850983, -0.015713529661297798, 0.04959779232740402, 0.13412955403327942, -0.05347174033522606, 0.09774245321750641, 0.07016875594854355, 0.06555992364883423, 0.0801939070224762, 0.20106713473796844, -0.007423178758472204, 0.1488378643989563, -0.07399904727935791, -0.0700015053153038, -0.05161223188042641, 0.02335815131664276, 0.0028726982418447733, -0.03687683120369911, -0.07713562250137329, 0.05033459514379501, 0.08724727481603622, 0.058510635048151016, 0.05726080387830734, 8.662405889481306E-4, 0.026600802317261696, 0.04239800199866295, -0.021624399349093437, 8.405899861827493E-4, 0.010939967818558216, 0.02384914830327034, 0.03477142006158829, -0.056898333132267, 0.06397580355405807, 0.015477323904633522, 0.056056831032037735, 0.1011645570397377, 0.05787906050682068, -0.00307105272077024, 0.04390200227499008, -0.08277926594018936, -0.13050539791584015, -0.07287974655628204, -0.11410538107156754, -0.08510663360357285, -0.0701102763414383, -0.020561106503009796, 0.007200959604233503, 0.009199390187859535, 0.023441197350621223, 0.06470347940921783, 0.11913667619228363, -0.036632973700761795, 0.08366018533706665, 0.028338482603430748, -0.07802727818489075, 0.026740435510873795, -0.006860131397843361, 0.0010996772907674313, 0.012932755053043365, 0.08889562636613846, 0.040674738585948944, 0.15822619199752808, 0.12244045734405518, 0.10574715584516525, 0.10144771635532379, 0.052918024361133575, -0.03593158721923828, -0.12221138179302216, -0.08541438728570938, -0.11672437936067581, -0.051944077014923096, -0.04836415499448776, -0.051007065922021866, -0.015191234648227692, -0.004931849427521229, 0.05554516240954399, 0.09072443097829819, -0.04398773983120918, 0.08812404423952103, 0.014749051071703434, 0.05730416253209114, -0.0322127640247345, 0.06007452681660652, -0.14795011281967163, -0.0030347444117069244, -0.09929271787405014, 0.04128977656364441, 0.04192040488123894, 0.055700670927762985, 0.06262321770191193, 0.04284106567502022, 0.13889679312705994, 0.05333376303315163, 0.12009662389755249, 0.0738469585776329, 0.054650288075208664, 0.014538231305778027, -0.0016967137344181538, 0.033179059624671936, 0.1059361919760704, -0.010160883888602257, 0.04278804361820221, 0.053902484476566315, -0.08490349352359772, -0.019307203590869904, -0.02779856137931347, -0.0632794052362442, -0.04355759918689728, 0.004393835086375475, -0.07892793416976929, 0.05486021563410759, -0.014208595268428326, -0.04221660643815994, -0.12409324944019318, -0.054035335779190063, 0.026759659871459007, 0.042386628687381744, 0.05169617384672165, 0.08851392567157745, 0.021108802407979965, 0.11151859164237976, 0.03008812479674816, 0.13884462416172028, 0.12352722138166428, 0.16603554785251617, 0.24070970714092255, 0.09420669078826904, 0.14769846200942993, -0.022644121199846268, 0.0032129951287060976, -0.006328182760626078, -0.10582340508699417, 0.006919222418218851, 0.04186594486236572, -0.0432337261736393, 0.039225514978170395, 0.01205487921833992, -0.0431504026055336, 0.039106495678424835, 0.07725115865468979, -0.06411223858594894, 0.006860325578600168, -0.04724035784602165, 0.04119769483804703, -0.06333383917808533, 0.031297147274017334, -0.01258145086467266, 0.028708040714263916, 0.13700298964977264, 0.08407121151685715, 0.10246811807155609, 0.08605238050222397, 0.061608076095581055, 0.08882522583007812, 0.03821399807929993, 0.08416097611188889, -0.04777199402451515, -0.030486952513456345, -0.029780728742480278, 0.019461151212453842, -0.04877285286784172, -0.07962160557508469, -0.027779225260019302, -0.03243139758706093, 0.08117902278900146, 0.04603811353445053, -0.07983700186014175, -0.00212577055208385, 0.0015834985533729196, 0.006313832942396402, 0.008533627726137638, 0.03082059882581234, 0.107573963701725, -0.0079357223585248, 0.02915688417851925, -0.005629347171634436, 0.023918742313981056, 0.10111920535564423, -0.055436473339796066, -0.016057470813393593, -0.022290371358394623, -0.09720978885889053, 0.01038519199937582, -0.007804093416780233, -0.05907953158020973, 0.039563119411468506, -0.03556637838482857, -0.08444541692733765, -0.06887444853782654, -0.05197823792695999, -0.03626275807619095, -0.08949380367994308, -0.024983186274766922, 0.03655671700835228, -0.017285164445638657, 0.0018124657217413187, -0.044289104640483856, 0.02110726200044155, -0.03745118901133537, 0.018074193969368935, -0.03061339445412159, 0.05635163560509682, 0.05650117248296738, 0.04934122785925865, 0.014517465606331825, -0.027806757017970085, 0.008516929112374783, 0.005402502603828907, 0.08661690354347229, 0.02042083628475666, 0.08654773235321045, -0.08195064216852188, -0.01023531798273325, 0.06221094727516174, -0.05089147388935089, -0.1036151647567749, -0.018603086471557617, -0.07172304391860962, 0.016780667006969452, 0.09220783412456512, 0.07020628452301025, -0.05151981860399246, 0.0334482379257679, 0.0165568720549345, 0.09379895776510239, -0.03575877845287323, 0.027223415672779083, 0.02774134650826454, 0.027371227741241455, -0.01981925405561924, 0.020929232239723206, 0.1050177589058876, -0.05692069232463837, -0.005205119494348764, 0.1178860142827034, 0.0980721190571785, 0.027321912348270416, 0.047226015478372574, -0.008238577283918858, -0.0675349310040474, 0.09673050045967102, 0.04330911487340927, 0.048227738589048386, -0.07307787239551544, -0.036091480404138565, 3.575177979655564E-4, 0.052256759256124496, 0.10121525824069977, 0.06295657157897949, -0.050810374319553375, -0.03754017502069473 ]
      }, {
        "activation" : 0.730084240436554,
        "biases" : 0.11030984669923782,
        "weights" : [ 0.078449547290802, 0.0025968265254050493, -0.030762942507863045, 0.08808942139148712, -0.06314077973365784, -0.0435975007712841, 0.09663122147321701, -0.04930158704519272, -0.03428797051310539, 0.010580142959952354, -0.039891861379146576, -0.0012433179654181004, -0.0057478598318994045, 0.09722797572612762, 0.0024391731712967157, 0.05132632330060005, 0.010069118812680244, 0.007828737609088421, 0.02984333410859108, 0.038171082735061646, -0.02573470026254654, -0.03658675029873848, -0.080661341547966, 0.007600894197821617, 0.007270703092217445, -0.039353419095277786, 0.20470184087753296, -0.013912598602473736, -0.009588253684341908, 0.027751995250582695, -0.028278425335884094, 0.023765189573168755, 0.02177491970360279, 0.0262827817350626, 0.05273793637752533, -0.009386907331645489, 0.08900853246450424, -0.04337787628173828, 0.04857857525348663, -0.12056035548448563, 0.01107767689973116, 0.06713418662548065, -0.044139038771390915, -0.09299514442682266, -0.060842834413051605, -0.08479820191860199, 0.0015071016969159245, 0.025058599188923836, -0.022270770743489265, 0.021820245310664177, 0.1141902506351471, 0.08993344008922577, -0.028385119512677193, -0.03400073200464249, 0.03469238057732582, 0.01653781719505787, 0.025128116831183434, -0.050424035638570786, 0.04609552398324013, 0.026957331225275993, 0.014714518561959267, 0.050692275166511536, 0.008824754506349564, 0.04280378296971321, 0.05564601719379425, 0.01975957304239273, 0.017377644777297974, 0.09421167522668839, -0.012545116245746613, 0.03390314802527428, 0.039371974766254425, -0.035578157752752304, 0.013633545488119125, -0.08604051172733307, -0.06197608262300491, -0.03954065218567848, -1.6223026614170521E-4, -0.04304521158337593, -0.0910884439945221, -0.10717719048261642, -0.0013505457900464535, 0.05245499312877655, 0.0726364478468895, 0.013452739454805851, -0.03243010863661766, 0.05384547635912895, 0.04539167508482933, -0.059984005987644196, 0.06118447333574295, -0.10423026978969574, -0.012843981385231018, -0.010995391756296158, -0.09901431202888489, 0.0401761494576931, 0.11130429804325104, 0.017430327832698822, 0.04481321573257446, 0.04035557061433792, -0.061065614223480225, -0.06403142213821411, -0.059468358755111694, -0.11272959411144257, -0.1352931559085846, -0.1108168363571167, -0.11208916455507278, 0.04988653585314751, 0.032847803086042404, -0.1170797273516655, -0.05575954169034958, 0.07170800864696503, -0.0645165741443634, 0.03187113255262375, 0.0953039675951004, 0.031757768243551254, 0.0411515086889267, 0.030539553612470627, -0.10003194212913513, 0.04254840686917305, 0.10694686323404312, 0.027453884482383728, 0.038867752999067307, 0.015307988040149212, 0.11969514191150665, 0.09995807707309723, 0.14407554268836975, 0.17484386265277863, 0.07892077416181564, 0.07137364894151688, 0.14388659596443176, 0.08483397215604782, -0.016809649765491486, 0.03137805312871933, -0.03309866786003113, 0.0197428110986948, -0.015582695603370667, 0.005990887060761452, 0.05948373302817345, 0.018957993015646935, -0.01522107608616352, 0.05185147747397423, -0.013296262361109257, 0.03416544944047928, -0.03812636435031891, 0.014125038869678974, -0.04090746119618416, -0.14567126333713531, 0.055296145379543304, -0.02139405347406864, -0.0047101546078920364, -0.007818863727152348, 0.1004878580570221, 0.21359959244728088, 0.08345254510641098, 0.20759618282318115, 0.23513032495975494, 0.0969853475689888, 0.04449897259473801, 0.08808354288339615, 0.08689878135919571, 0.06911944597959518, 0.11746173352003098, 0.10100124776363373, -0.014030514284968376, -0.01804409548640251, 0.03060680627822876, -0.014463034458458424, -0.06990344077348709, 0.09071749448776245, -0.11244538426399231, 0.051312997937202454, 0.105751171708107, -0.03983214497566223, 0.05798766762018204, 0.014817826449871063, 0.054601192474365234, 0.0371127612888813, 0.07012785226106644, 0.153709277510643, 0.039256751537323, 0.05111858993768692, 0.11088816821575165, 0.08187150210142136, -0.004163423553109169, 0.01382738258689642, -0.06941743940114975, 0.03375641256570816, 0.09151257574558258, 0.07632441073656082, 0.05444807559251785, 0.08959559351205826, 0.027862222865223885, 0.09917569905519485, 0.09113486856222153, 0.03979025036096573, -0.007311936933547258, -0.0888252705335617, -0.037526488304138184, 0.12246164679527283, -0.008297955617308617, -0.050123024731874466, -0.038969215005636215, -0.09818160533905029, 0.0574873648583889, 0.10060536861419678, 0.1089877262711525, 0.06729037314653397, 0.005671260412782431, 0.06146372854709625, -0.008637260645627975, -6.533594569191337E-4, 0.002788911107927561, -0.08663057535886765, -0.023560617119073868, -0.011712534353137016, 0.10788567364215851, 0.11328297108411789, 0.14293479919433594, 0.06894828379154205, 0.0744447410106659, 0.016651559621095657, -0.005449661519378424, -0.02463100291788578, 0.013280223123729229, 0.01577930524945259, -0.04341985285282135, 0.024882100522518158, -0.07559773325920105, 0.023330042138695717, 0.10310642421245575, 0.044628556817770004, 0.09758727252483368, 0.0791870728135109, 0.1532777100801468, -0.05828045308589935, 0.04070066288113594, 0.15589827299118042, 0.11378702521324158, 0.06705092638731003, 0.11882409453392029, 0.225093275308609, 0.12956102192401886, 0.19370073080062866, 0.14406313002109528, 0.08491028845310211, 0.15750440955162048, 0.16780208051204681, 0.05043397471308708, 0.041119080036878586, 0.09801699966192245, -0.036527231335639954, -0.00932950247079134, -0.036602068692445755, 0.0506015308201313, -0.024896986782550812, -0.09873875975608826, 0.08661448210477829, 0.06437962502241135, 0.10535164177417755, 0.12180209904909134, 0.11050418019294739, 0.073306143283844, 0.07386548072099686, -0.028876854106783867, -0.01628991775214672, 0.058956317603588104, 0.10321208834648132, 0.32118695974349976, 0.21445827186107635, 0.22694069147109985, 0.1429564505815506, 0.16793225705623627, 0.12379759550094604, 0.1601962298154831, 0.13342590630054474, 0.12677228450775146, 0.08683177083730698, 0.016636157408356667, 0.050537776201963425, -0.009241180494427681, -0.029351964592933655, 0.03186839446425438, 0.021357690915465355, 0.04069563373923302, -0.011174796149134636, 0.06086359918117523, 0.09140561521053314, 0.11390259116888046, 0.05875200033187866, -0.00919834803789854, 0.06357444077730179, -0.019374080002307892, -0.11968553811311722, -0.025248970836400986, 0.07994989305734634, 0.22596126794815063, 0.30220428109169006, 0.2441823035478592, 0.14423485100269318, 0.10038299858570099, 0.14429841935634613, 0.010117283090949059, 0.08678542822599411, -0.0022437814623117447, 0.01059489231556654, -0.050368089228868484, 0.014895082451403141, 0.05193263664841652, -0.02169293351471424, 0.031236663460731506, -0.12004191428422928, 0.10063715279102325, 0.041538793593645096, 0.07181280106306076, -0.10869280248880386, -0.0025869777891784906, -0.09854677319526672, -0.0881517231464386, -0.08525949716567993, -0.20538292825222015, -0.10107971727848053, -0.13780231773853302, 0.021980274468660355, 0.11762766540050507, 0.1360662877559662, 0.056856729090213776, -0.09800794720649719, -0.06233178824186325, -0.01401805691421032, 0.009229375049471855, -0.06420441716909409, -0.013574017211794853, 0.07136253267526627, 0.05989755317568779, 0.013336914591491222, 0.025330474600195885, -0.09452472627162933, -0.04724205657839775, 0.05754803493618965, 0.05795012041926384, -0.02132735587656498, 0.10622949153184891, -0.02934664860367775, -0.07717158645391464, -0.15862944722175598, -0.12533503770828247, -0.2319170981645584, -0.23593513667583466, -0.26520028710365295, -0.17371249198913574, -0.10023383796215057, 0.05061168596148491, -0.03110179863870144, -0.15425889194011688, -0.2060462087392807, -0.15997713804244995, -0.05976325273513794, -0.047902874648571014, -0.055730316787958145, -0.10660142451524734, 0.08702205121517181, 0.015664616599678993, -0.00632241927087307, -0.04202255234122276, -0.018849067389965057, -0.00872618518769741, 0.004937461111694574, -0.09443172812461853, -0.097105473279953, -0.011054808273911476, -0.06748258322477341, -0.1496405303478241, -0.22297945618629456, -0.25772926211357117, -0.22328943014144897, -0.2033025175333023, -0.32173818349838257, -0.2258095145225525, -0.14577049016952515, -0.07477623224258423, -0.14141495525836945, -0.308495432138443, -0.11849018186330795, -0.12878073751926422, -0.02348506823182106, -0.07719674706459045, -0.10708070546388626, -0.060239411890506744, 0.005823786836117506, 0.0027757661882787943, 0.0010741950245574117, -0.09369269013404846, 0.03533626347780228, -0.02001948468387127, 0.030152631923556328, 0.04643404483795166, -0.041438404470682144, 0.025874469429254532, -0.09513381123542786, -0.17024388909339905, -0.16985107958316803, -0.17625941336154938, -0.17018897831439972, -0.13794086873531342, -0.2384958118200302, -0.25507327914237976, -0.10034840553998947, -0.09153691679239273, -0.16894106566905975, -0.2782949209213257, -0.15937262773513794, -0.10927265882492065, -0.07188613712787628, -0.04741303622722626, -0.06081388145685196, -0.06457251310348511, -0.011873709969222546, 0.053072649985551834, -0.14591187238693237, 0.08246256411075592, -0.0010696714743971825, 0.023725789040327072, -0.05156048387289047, -0.06085466593503952, -0.061434339731931686, -0.05980405956506729, -0.09190566837787628, -0.07201408594846725, -0.04962215572595596, -0.11478788405656815, -0.12880903482437134, -0.22975486516952515, -0.2847953140735626, -0.15188159048557281, 0.07219171524047852, -0.06327784806489944, -0.10533612221479416, -0.1958140879869461, -0.13128896057605743, 0.03880635276436806, 0.014420227147638798, -0.039025191217660904, -0.027574174106121063, -0.015223859809339046, 8.866165881045163E-4, 0.01614086888730526, -0.06100959703326225, 0.05442877486348152, -0.045194778591394424, -0.02842837944626808, -0.04695262759923935, 0.0818076878786087, -0.01865333504974842, -0.04650010168552399, -0.006034294608980417, 0.03582380712032318, -0.02047133818268776, -0.14491006731987, -0.23137983679771423, -0.13619489967823029, -0.15843380987644196, -0.18186676502227783, 0.03129270672798157, -0.0011956513626500964, -0.15052498877048492, -0.07297726720571518, 0.011601021513342857, 0.010514063760638237, -0.004992801230400801, -0.027847331017255783, -0.047163620591163635, -0.06528017669916153, 0.11166157573461533, 0.031676892191171646, 0.04064293950796127, -0.003708280622959137, 0.05144142732024193, 0.08116531372070312, 0.06370577216148376, -0.0034584428649395704, 0.04456750303506851, 0.05460403114557266, 0.10000846534967422, 0.08918372541666031, 0.011425672098994255, -0.03932685777544975, -0.15339350700378418, -0.19247224926948547, -0.23819953203201294, -0.08739113807678223, 0.06304467469453812, -0.056523341685533524, 0.02415168471634388, 0.04474810138344765, 0.030993323773145676, -0.03029956854879856, -0.025346441194415092, -0.0230278167873621, 0.10523426532745361, 0.03147578611969948, 0.07266043871641159, 0.06830469518899918, 0.06813512742519379, 4.984396509826183E-4, -0.041346922516822815, -0.04036474600434303, -0.08058342337608337, 0.03491677716374397, 0.0021682854276150465, -0.056864749640226364, 0.08517719805240631, 0.1098237857222557, 0.08123816549777985, 0.1290004700422287, -0.020558258518576622, -0.004876259248703718, -0.1325743943452835, -0.04175916686654091, 0.12881381809711456, 0.02238338254392147, 0.12304119765758514, 0.010332955978810787, -0.012679971754550934, 0.011807698756456375, 0.04878799989819527, -0.03568141907453537, 0.12334103137254715, 0.07538795471191406, 0.058859046548604965, 0.009184258058667183, -0.09593700617551804, -0.014484401792287827, 0.004080260172486305, -0.052676696330308914, -0.0075879474170506, -0.023447047919034958, 0.017858456820249557, 0.026359057053923607, 0.08267543464899063, 0.2813494801521301, 0.1598501205444336, 0.16949845850467682, 0.10530608892440796, 0.0017054339405149221, 0.09629760682582855, -0.024262338876724243, 0.03585495054721832, 0.10881359130144119, -0.003647373989224434, 0.11623944342136383, 0.04922311007976532, 0.05734945461153984, 0.05201853811740875, 0.015827519819140434, 0.03740440309047699, 0.1422407031059265, 0.09515509009361267, 0.13293807208538055, 0.10699961334466934, -0.011189212091267109, 0.012871657498180866, -0.020482352003455162, -0.020225955173373222, -0.027103565633296967, -3.5903355455957353E-4, 0.07016822695732117, 0.16077522933483124, 0.2011861801147461, 0.11470638960599899, 0.2822690010070801, 0.22335708141326904, 0.13167811930179596, 0.06484193354845047, 0.026308486238121986, 0.024498077109456062, 0.033107563853263855, -0.04060344025492668, -0.02740694209933281, 7.482130895368755E-4, -0.027819056063890457, 0.0887896940112114, -0.003513605799525976, 0.09516215324401855, 0.022601880133152008, 0.07775483280420303, 0.044345807284116745, -0.03926651179790497, -0.04776401445269585, -0.019057346507906914, -0.01406522560864687, 0.06997215747833252, -0.09050843864679337, -0.028283266350626945, -0.07605227082967758, 0.08620142191648483, 0.2370457500219345, 0.15164229273796082, 0.2165137529373169, 0.2312273383140564, 0.10391927510499954, 0.0751994177699089, -0.019070317968726158, -0.04466647654771805, 0.010966852307319641, -0.055802393704652786, -0.07767295092344284, 0.0170998964458704, 0.09665412455797195, 0.08413292467594147, 0.16294854879379272, 0.026179295033216476, 0.030382975935935974, -0.023910589516162872, 0.03908303752541542, 0.016662264242768288, -0.08650384843349457, 0.04235517233610153, 0.028997154906392097, -0.05040831118822098, -0.10764463245868683, 0.023970970883965492, -0.046182479709386826, 0.16598905622959137, 0.17326027154922485, 0.046708498150110245, 0.18191057443618774, 0.1557813584804535, 0.2216663956642151, 0.04599810019135475, 0.08921650052070618, 0.17656993865966797, 0.049594707787036896, 0.11164256185293198, 1.954038452822715E-5, 0.09632772207260132, 0.07698722928762436, -0.05952799320220947, 0.04950292035937309, 0.002282737521454692, 0.02776130847632885, -0.007279113866388798, -0.06849091500043869, -0.003933754283934832, 0.05390457063913345, -0.1305290162563324, -0.04222393408417702, -0.018474020063877106, 0.004992052912712097, -0.022282559424638748, -0.05044975504279137, -0.018033603206276894, 0.09989075362682343, 0.12462300062179565, -0.022949595004320145, 0.019756602123379707, 0.14190568029880524, 0.05485913157463074, 0.09295770525932312, 0.1337718963623047, 0.05272999405860901, 0.14505378901958466, 0.005822072736918926, -0.005461313296109438, -0.1167319118976593, -0.03087760880589485, -0.13705803453922272, 0.02964070625603199, -0.010701368562877178, -0.03037194348871708, 0.009577624499797821, 0.02953014150261879, -0.0406344011425972, 0.04624173417687416, 0.007989336736500263, -0.07838261872529984, 0.10106618702411652, -0.035545714199543, 0.04413682594895363, -0.01724780537188053, -0.009506309404969215, -0.03244932368397713, 0.05190328136086464, -0.09940504282712936, -0.09091069549322128, 0.1160033717751503, -0.009469461627304554, -0.025296155363321304, 0.061280183494091034, 0.12567123770713806, -0.011212554760277271, -0.010576206259429455, -0.10933355242013931, -0.10909455269575119, -0.11683101207017899, -0.04851599410176277, -0.005215547978878021, 0.02721044048666954, 0.04719361662864685, -0.04655006155371666, -0.00790389347821474, 0.012996921315789223, 0.10809079557657242, 0.00730666471645236, -0.07001804560422897, -0.0309376809746027, -0.07114535570144653, -0.022064661607146263, -0.10892106592655182, -0.0137902507558465, -0.01033762563019991, -0.0066205719485878944, -0.014698817394673824, 0.045766595751047134, 0.018305569887161255, -0.014446686953306198, -0.014855263754725456, 0.020831603556871414, 0.04059256985783577, -0.10252086073160172, -0.053008656948804855, -0.003451352706179023, 1.9068716937908903E-5, 0.04867774620652199, -0.010621299035847187, 0.015114805661141872, -0.0939677432179451, 0.026216695085167885, -0.013353163376450539, -0.08755505830049515, -0.00558715732768178, -0.03360939770936966, -0.09679485857486725, -0.07422597706317902, 0.04702245071530342, -0.0335623063147068, -0.04772269353270531, -0.020043276250362396, 0.12013068050146103, 0.0458633229136467, -0.00903587881475687, 0.18098261952400208, -0.004425953142344952, 0.07814200967550278, -0.058587148785591125, 0.024890385568141937, 0.07278762012720108, 0.0859019085764885, 0.019348548725247383, 0.04878067970275879, -0.012977802194654942, -0.05159139633178711, 0.06033896654844284, -0.027502452954649925, -0.027965180575847626, 0.021643418818712234, 0.021340832114219666, 0.016880104318261147, -0.007335998583585024, 0.07978231459856033, -0.04374885931611061, -0.02120768092572689, 0.043158892542123795, -0.03288505598902702, 0.08094563335180283, -0.025387641042470932, 0.04116783291101456, -0.002469029976055026, 0.04024874046444893, -0.03686966001987457, -0.0074394214898347855, 0.03991718590259552, -0.022189168259501457, 0.05039401724934578, 0.022465569898486137, -0.09614617377519608, 0.05752858519554138, -0.06153912469744682, 0.07267385721206665, -0.0095931151881814, 0.024975543841719627, -0.023663172498345375, -0.01898130029439926, -0.01899527572095394, 0.03716888278722763, -0.029095198959112167 ]
      }, {
        "activation" : 0.9835718870162964,
        "biases" : 0.16006982326507568,
        "weights" : [ -0.03286903351545334, 0.007386060897260904, 0.056985411792993546, 0.009637176990509033, 0.049464475363492966, 0.004507148638367653, -0.05158309265971184, -0.10873322933912277, -0.019744737073779106, 0.03923681750893593, -0.012731954455375671, 0.02909073978662491, -0.0706615075469017, 0.03320569172501564, 0.030473018065094948, 0.017947375774383545, -0.05809493362903595, 0.04126562178134918, -0.10267134010791779, 0.05547356233000755, 0.04814675450325012, 0.0017589939525350928, 0.004067911300808191, 0.005298836622387171, -0.11704146862030029, 0.017816660925745964, -0.05180826783180237, 0.07365793734788895, -0.05315987020730972, 0.06899086385965347, -0.0069342851638793945, -0.04346395656466484, 0.0639919713139534, 0.03828619047999382, -0.07429710030555725, -0.09544934332370758, 0.07024509459733963, -0.004629829898476601, 0.02642802521586418, -0.03132103011012077, -0.03676049783825874, -8.025639108382165E-4, 0.07409738749265671, 0.043897271156311035, 0.061342425644397736, -0.04969377815723419, 0.018335290253162384, 0.09476162493228912, -0.09228156507015228, 0.06927168369293213, -0.01986895501613617, 0.030067844316363335, 0.06659851968288422, -0.060653623193502426, 0.05077412351965904, 0.12849538028240204, -0.054088715463876724, 0.006369203794747591, 0.01973380148410797, 0.0076746270060539246, 0.04423895478248596, 0.030404265969991684, 0.10044889152050018, 0.06391914933919907, -0.042701780796051025, 0.06201514974236488, -0.04890654981136322, -0.08058404922485352, 0.0687614381313324, -0.03774945065379143, -0.08375506103038788, 0.042299095541238785, 0.049776237457990646, 0.010036630555987358, -0.11737876385450363, 0.024129582569003105, -0.002667055232450366, 0.06072121486067772, 0.0019388484070077538, 0.06998453289270401, 0.023761646822094917, 0.05080790817737579, 0.07781469076871872, -0.046289995312690735, -0.045426659286022186, -0.04689048230648041, -0.10374146699905396, -0.043893590569496155, -0.06571187824010849, -0.018284719437360764, 0.06563149392604828, 0.033526524901390076, -0.06969034671783447, -0.041070058941841125, -0.02700149267911911, -0.05239434167742729, -0.07387544959783554, -0.1487015038728714, 0.0033963415771722794, -0.17930471897125244, -0.12126720696687698, -0.09360430389642715, -0.05771159753203392, -0.0364544652402401, -0.030732374638319016, 0.014022516086697578, -0.027916429564356804, 0.004422517027705908, -0.014349943026900291, 0.09394749253988266, -0.013865838758647442, -0.04915756732225418, 0.002830618293955922, 4.303380264900625E-4, -0.08903580158948898, -0.03686322271823883, -0.02714177593588829, 0.02645515836775303, 0.028714247047901154, -0.015902716666460037, 0.06296762079000473, 0.01826435513794422, -0.0667850449681282, -0.06860704720020294, 0.020032132044434547, -0.04120592400431633, -0.11862104386091232, -0.06652487814426422, -0.04226139932870865, -0.047607459127902985, -0.06700626015663147, -0.0555933453142643, -0.05279267579317093, -0.06847698241472244, -0.024375436827540398, 0.019139965996146202, 0.025513561442494392, 0.0280242171138525, 0.006566156633198261, 0.1344890147447586, -0.008544888347387314, -0.07364671677350998, -0.05462831258773804, -0.04625504091382027, 0.05608593672513962, 0.08375444263219833, -0.11797793209552765, -0.1252821981906891, -0.0017366812098771334, -0.11109362542629242, -0.09165927767753601, -0.026545798406004906, -0.07585900276899338, -0.05290263891220093, -0.061375778168439865, -0.14441744983196259, -0.04927637428045273, -0.08370153605937958, -0.0834951102733612, -0.1789984107017517, -0.08627071231603622, -0.10016538947820663, -0.07082536816596985, -0.08182088285684586, -0.046301279217004776, 0.18213008344173431, -0.009532193653285503, 0.03499145805835724, -0.058289334177970886, -0.04851258546113968, -0.022380948066711426, -0.08986169844865799, -0.027449417859315872, -0.03378792852163315, -0.06889481842517853, -0.025254925712943077, -0.08900659531354904, -0.10915322601795197, -0.008004129864275455, -0.05878983438014984, -0.02626318484544754, 0.10393843799829483, 0.07536900788545609, 0.12276230752468109, 0.1548791229724884, 0.03045131079852581, 0.02095806784927845, 0.002001113025471568, -0.014137058518826962, 0.01920873299241066, 0.008418009616434574, 0.024319561198353767, 0.09784263372421265, 0.06536635756492615, 0.02575315348803997, 0.07706226408481598, -0.032156459987163544, -0.002879100851714611, 0.06223398819565773, 0.07978154718875885, -0.0725327581167221, -0.06330124288797379, 0.03724522143602371, -0.09205711632966995, 0.0446741096675396, -0.08535754680633545, 0.035490695387125015, -0.022022005170583725, 0.10047905892133713, 0.26682358980178833, 0.21603237092494965, 0.25864377617836, 0.3017381727695465, 0.2556456923484802, 0.09103644639253616, 0.03531942144036293, 0.0012444732710719109, 0.00449370825663209, 0.007776737213134766, 0.04480494558811188, -0.05236252769827843, -0.008764461614191532, 0.025013716891407967, -0.056658077985048294, -0.008562454953789711, 0.02969662845134735, -0.07204741984605789, -0.01802627183496952, 0.020126409828662872, 0.04161139205098152, -0.07554236799478531, -0.14725175499916077, -0.03907909244298935, 0.014423118904232979, -0.10922083258628845, 0.05604854226112366, 0.1624550223350525, 0.21244345605373383, 0.2854636609554291, 0.27798381447792053, 0.3435743451118469, 0.24322599172592163, 0.1368090659379959, 0.10895458608865738, 0.04512375593185425, 0.02449500560760498, -0.010822777636349201, 0.014627902768552303, 0.006242525763809681, 0.12243994325399399, -0.03756418079137802, 0.029203902930021286, -0.00503411702811718, 7.128420984372497E-4, -0.07547139376401901, -0.008044417947530746, -0.038042858242988586, -0.031832825392484665, -0.06733246147632599, -0.046484723687171936, -0.07910380512475967, 0.09323284029960632, 0.0759752169251442, 0.07797612994909286, 0.07264833897352219, 0.2684940993785858, 0.1990770548582077, 0.19136840105056763, 0.2221418172121048, 0.1889743059873581, 0.06306774169206619, 0.1038600280880928, 0.038792241364717484, 0.061989232897758484, 0.008360612206161022, 0.0627819076180458, 0.05430356785655022, 0.03853597864508629, 0.0072858333587646484, -0.09145205467939377, -0.002025144873186946, -0.028928693383932114, 0.022658051922917366, -0.032933369278907776, 0.024569975212216377, 0.004246145952492952, -0.05122280865907669, 0.04865596815943718, 0.016806907951831818, 0.11595991253852844, 0.08981950581073761, 0.06496451050043106, 0.0957508385181427, 0.11814401298761368, 0.19685156643390656, 0.1727500706911087, 0.1051696315407753, -0.03195204585790634, 0.021607782691717148, 0.007800001185387373, 0.034687478095293045, 0.05441917106509209, -0.009447186253964901, 0.005804127547889948, 0.07216177135705948, -0.010596804320812225, 0.0927685871720314, 0.02787098102271557, -0.02617388777434826, 0.007569528184831142, 0.03567253053188324, 0.011705408804118633, -0.020952889695763588, 0.011961664073169231, 0.08553784340620041, 0.16457757353782654, 0.03285754472017288, 0.09603217989206314, 0.09690021723508835, 0.11644423753023148, 0.03878048434853554, 0.13278888165950775, 0.06261012703180313, 0.08037544786930084, -0.015910709276795387, -0.06469284743070602, -0.09738428145647049, -0.08680304884910583, 0.002219334477558732, -0.05219893530011177, 0.020123979076743126, 0.1379687339067459, -0.025858039036393166, -0.050290338695049286, 0.024034302681684494, 0.003125718329101801, 0.0596357099711895, -0.03797481209039688, -0.01504917535930872, 0.07770471274852753, 0.11166437715291977, 0.015755917876958847, 0.07163888216018677, 0.14367718994617462, 0.1646297425031662, 0.15182280540466309, 0.20670157670974731, 0.11503905802965164, 0.028167206794023514, 0.056841619312763214, 0.10586188733577728, 0.08244772255420685, -0.04196884483098984, -0.05051976069808006, -0.23868215084075928, 0.002015673089772463, 0.07868146896362305, 0.01898057758808136, 0.06369846314191818, -0.0034926740918308496, -0.010744433850049973, -0.023800956085324287, -0.048718735575675964, -0.002674796851351857, -0.03373365104198456, -0.05375552922487259, -0.02239559404551983, -0.008181924000382423, 0.02566460520029068, 0.08328577876091003, 0.1352623999118805, 0.0827486664056778, 0.1483573168516159, 0.09548480063676834, 0.1001691222190857, 0.043601226061582565, -0.037878502160310745, -0.006585401017218828, 0.0031392367091029882, -0.037315212190151215, -0.05330420285463333, -0.06124494597315788, -0.041812896728515625, 0.022483227774500847, -0.02637278288602829, 0.06483854353427887, 0.021533381193876266, 0.018075183033943176, -0.041536036878824234, -0.007056259084492922, -0.013947386294603348, 0.011930722743272781, -0.03314985707402229, -0.06458410620689392, -0.0022362784948199987, 0.03967752307653427, 0.024877993389964104, 0.09041023999452591, 0.1586223989725113, 0.07501573860645294, 0.0927874818444252, 0.12265320867300034, 0.0819617360830307, -0.08549529314041138, -0.10185963660478592, -0.15857663750648499, -0.1268618255853653, -0.1284210979938507, -0.1796642541885376, -0.004925511311739683, -0.06529104709625244, 0.010304243303835392, -0.07583589851856232, 0.021025316789746284, 0.033652111887931824, 0.11449901759624481, 0.03216996043920517, 0.007418959867209196, -0.030735036358237267, 0.018254676833748817, -0.1054602637887001, 0.038931455463171005, 0.022152768447995186, 0.12143261730670929, 0.021788081154227257, -0.010311374440789223, 0.011382423341274261, 0.02516261301934719, 0.07629868388175964, 0.09509055316448212, -0.11455988883972168, -0.15206648409366608, -0.1856309026479721, -0.21294176578521729, -0.1648983210325241, -0.24628660082817078, -0.22622238099575043, -0.08854059875011444, -0.022891370579600334, -0.06417521089315414, -0.0698462724685669, 0.05590419843792915, 0.005844722036272287, -0.026056447997689247, -0.03665464371442795, 0.05375143513083458, -0.08413290232419968, -0.0013911849819123745, 0.03850432485342026, 0.009883800521492958, -0.00898864958435297, -0.0011085359146818519, -0.09271778166294098, -0.023193297907710075, -0.035291869193315506, -0.10904412716627121, -0.08635599911212921, -0.14447298645973206, -0.21373671293258667, -0.2978387773036957, -0.3384960889816284, -0.41297614574432373, -0.2875003218650818, -0.2654285430908203, -0.15417598187923431, -0.016126317903399467, 0.02498839609324932, 0.005482368636876345, 0.08964025229215622, 0.013824699446558952, 0.032936710864305496, -0.030102625489234924, -0.03945198282599449, 0.004021819215267897, 0.04015907645225525, -0.05760984122753143, -0.00891326554119587, -0.003445347538217902, 0.07067719846963882, -0.007613015826791525, 0.01919565722346306, 0.08008810877799988, 0.008985516615211964, -0.05774948000907898, -0.0806373730301857, -0.12495403736829758, -0.24792325496673584, -0.2808777093887329, -0.3459833860397339, -0.3034379184246063, -0.18287520110607147, -0.1398741602897644, -0.21613188087940216, 0.05941818654537201, -0.037219926714897156, -5.984863382764161E-4, 0.036298856139183044, -0.08378121256828308, -0.08318980038166046, -0.02041514776647091, -0.06077516824007034, 0.03984826058149338, 0.013943057507276535, -0.019407235085964203, -0.08481600880622864, -0.10975105315446854, -0.032788682729005814, -0.047573719173669815, -0.011858902871608734, -0.0500657819211483, 0.040994349867105484, 0.002155893947929144, -0.13153211772441864, -0.1422031819820404, -0.31220781803131104, -0.30968716740608215, -0.28089597821235657, -0.21905775368213654, -0.14837360382080078, -0.10330985486507416, -0.03838872164487839, -0.006362676154822111, -0.07681844383478165, -0.016252964735031128, -0.022413980215787888, 0.0014450037851929665, 0.008864516392350197, -0.09004893898963928, 9.390825871378183E-4, -0.024493128061294556, -0.053863875567913055, -0.05729297548532486, -0.050993043929338455, -0.040058113634586334, 0.024959661066532135, 0.043216630816459656, 0.05202387273311615, 0.08001477271318436, 0.13749518990516663, -0.02974722720682621, 0.02745804935693741, -0.2468821257352829, -0.28355124592781067, -0.26418495178222656, -0.25133731961250305, -0.09283114969730377, -0.06963502615690231, -0.15664207935333252, 0.08851707726716995, -0.05033893883228302, 0.03002597577869892, -0.07996445894241333, -0.054149799048900604, 0.008086826652288437, 0.004698691423982382, -0.12104479223489761, -0.11550741642713547, -0.0423252135515213, -0.061683762818574905, 0.02092890813946724, 0.13226887583732605, -0.013299637474119663, -0.023765943944454193, -0.06615413725376129, -0.014012730680406094, -0.03656693175435066, -0.008343242108821869, -0.02253490872681141, -0.03242084011435509, -0.10599467158317566, -0.10453033447265625, -0.04914170503616333, -0.055500227957963943, 0.007179593201726675, -0.019142847508192062, -0.023685017600655556, -0.06636489927768707, -0.007372092921286821, -0.08786215633153915, 0.032513633370399475, -0.01581227034330368, -0.12281563878059387, -0.08082610368728638, -0.002857113955542445, -0.08290504664182663, -0.036584556102752686, 0.0038547711446881294, -0.05005037784576416, 0.03636760264635086, -0.049586907029151917, 0.006125993560999632, -0.09295143932104111, 0.003305071033537388, -0.03772534802556038, 0.10729014873504639, -0.07280563563108444, -0.040206100791692734, 0.019388269633054733, 0.00401831790804863, 0.07386273890733719, 0.030617771670222282, 0.10956466943025589, 0.0016186849679797888, 0.012114233337342739, 0.043390821665525436, -0.06829005479812622, 0.05630166083574295, 0.027537578716874123, 0.003898225724697113, -0.08011248707771301, -0.013910879381000996, -0.09794938564300537, -0.07732193171977997, -0.03246695548295975, -0.02942238748073578, 0.02350750006735325, -0.08293642848730087, -0.0019137021154165268, -0.026543429121375084, -0.04009583592414856, -0.022290758788585663, -0.062376245856285095, 0.024985264986753464, 0.08399306982755661, -0.04130638763308525, 0.14669260382652283, 0.08513054996728897, 0.09846962243318558, 0.07781121134757996, 0.10592397302389145, 0.09924076497554779, 0.009306849911808968, -0.02370780147612095, 0.044144436717033386, 0.01704900711774826, -0.1007608026266098, -0.033694032579660416, -0.049907371401786804, 0.02152303420007229, -0.06313373893499374, -0.05130285024642944, 0.06952959299087524, -0.011693145148456097, -0.02984197624027729, 0.07079999148845673, 0.02822047844529152, -3.8691150257363915E-4, -0.010344321839511395, -0.0669962540268898, -0.03515185788273811, 0.019973738119006157, -0.015853574499487877, 0.08056613057851791, -0.03167979046702385, 0.1922382414340973, 0.08515539765357971, 0.15446476638317108, 0.1789766550064087, 0.1078493595123291, 0.10882788896560669, 0.02202185057103634, 0.021966135129332542, 0.02181490883231163, 0.009838121011853218, 0.0023310452233999968, 0.03110630065202713, -0.02334369532763958, -0.021047621965408325, -0.021880105137825012, -0.061611607670784, -0.023675909265875816, -0.04134213179349899, -0.056466445326805115, 0.08469963818788528, 0.0302856657654047, -0.009666630998253822, -0.02136656641960144, 0.07237759232521057, 0.027291659265756607, 0.056421175599098206, -0.016714898869395256, 0.06009673327207565, 0.043843891471624374, -0.021159090101718903, -0.025883421301841736, 0.05481080710887909, -0.040591832250356674, 0.010055758990347385, 0.09279575198888779, 0.02823408506810665, 0.04348765313625336, 0.04064501076936722, 0.09025566279888153, -0.012012639082968235, 0.045249395072460175, 0.026255467906594276, 0.06116483360528946, 0.031477879732847214, -0.0689665675163269, -0.044980116188526154, 0.043195344507694244, 0.043613262474536896, -0.01372570637613535, 0.06012781709432602, 0.019856765866279602, 0.030330363661050797, 0.01956060901284218, 0.037430983036756516, 0.1086873859167099, 0.11834687739610672, 0.10225754976272583, 0.2128577083349228, 0.1369124948978424, 0.048747897148132324, 0.1071271225810051, 0.0845281183719635, 0.10232659429311752, 0.12041822075843811, 0.0657351166009903, 0.07359384000301361, 0.08623255044221878, -0.0421932227909565, 0.1034780964255333, 0.01481015793979168, 0.03163514658808708, -0.04896840453147888, 0.03447716683149338, -0.025958066806197166, -0.03139295428991318, 0.06019403412938118, 0.012930115684866905, -0.015674348920583725, 0.05872144550085068, 0.03719847649335861, -0.023524155840277672, -0.016893528401851654, -0.0592118576169014, 0.03433093801140785, -0.011368980631232262, -0.035208553075790405, -0.012582098133862019, -0.032338716089725494, 0.059120114892721176, 0.006998382043093443, 0.04077496379613876, 0.006249752826988697, 0.12327118963003159, 0.026473572477698326, -0.037604983896017075, 0.03524285554885864, 0.0672188401222229, -0.010275625623762608, 0.0016987191047519445, -0.03632286936044693, 0.08426942676305771, 0.04014279693365097, -0.041012100875377655, -0.03155573084950447, 0.003555675968527794, -0.03935826197266579, -0.03020714968442917, 0.01893402822315693, 0.033477310091257095, -0.12203210592269897, -0.0541992150247097, 0.05247039347887039, 0.061430297791957855, -0.0620214082300663, 0.03842845931649208, -0.03411351144313812, 0.041011471301317215, 0.039462972432374954, 8.367950795218349E-4, 0.06839696317911148, 0.0406009666621685, 0.023186711594462395, 0.020020751282572746, -0.014694958925247192, -0.023152587935328484, 0.06494905799627304, 0.0481305867433548, 0.06948156654834747, 0.15186303853988647, 0.09926340728998184 ]
      }, {
        "activation" : 0.01130516454577446,
        "biases" : 0.15068461000919342,
